<?xml version="1.0"?>
<opencv_storage>
<cascade>
  <stageType>BOOST</stageType>
  <featureType>HAAR</featureType>
  <height>200</height>
  <width>14</width>
  <stageParams>
    <boostType>GAB</boostType>
    <minHitRate>9.9500000476837158e-01</minHitRate>
    <maxFalseAlarm>5.0000000000000000e-01</maxFalseAlarm>
    <weightTrimRate>9.4999999999999996e-01</weightTrimRate>
    <maxDepth>1</maxDepth>
    <maxWeakCount>100</maxWeakCount></stageParams>
  <featureParams>
    <maxCatCount>0</maxCatCount>
    <featSize>1</featSize>
    <mode>ALL</mode></featureParams>
  <stageNum>6</stageNum>
  <stages>
    <!-- stage 0 -->
    <_>
      <maxWeakCount>1</maxWeakCount>
      <stageThreshold>1.</stageThreshold>
      <weakClassifiers>
        <_>
          <internalNodes>
            0 -1 1 3.3532641828060150e-02</internalNodes>
          <leafValues>
            -9.9181169271469116e-01 1.</leafValues></_></weakClassifiers></_>
    <!-- stage 1 -->
    <_>
      <maxWeakCount>2</maxWeakCount>
      <stageThreshold>-1.1367898434400558e-01</stageThreshold>
      <weakClassifiers>
        <_>
          <internalNodes>
            0 -1 7 -3.7428162992000580e-02</internalNodes>
          <leafValues>
            9.4669300317764282e-01 -9.8739492893218994e-01</leafValues></_>
        <_>
          <internalNodes>
            0 -1 2 -3.7667378783226013e-01</internalNodes>
          <leafValues>
            8.7371599674224854e-01 -9.9412655830383301e-01</leafValues></_></weakClassifiers></_>
    <!-- stage 2 -->
    <_>
      <maxWeakCount>2</maxWeakCount>
      <stageThreshold>-1.3968534767627716e-01</stageThreshold>
      <weakClassifiers>
        <_>
          <internalNodes>
            0 -1 9 -4.9747917801141739e-03</internalNodes>
          <leafValues>
            8.8835418224334717e-01 -9.7624188661575317e-01</leafValues></_>
        <_>
          <internalNodes>
            0 -1 0 -6.4040655270218849e-03</internalNodes>
          <leafValues>
            8.3655655384063721e-01 -9.7200542688369751e-01</leafValues></_></weakClassifiers></_>
    <!-- stage 3 -->
    <_>
      <maxWeakCount>2</maxWeakCount>
      <stageThreshold>-1.6292472183704376e-01</stageThreshold>
      <weakClassifiers>
        <_>
          <internalNodes>
            0 -1 4 4.8870658501982689e-03</internalNodes>
          <leafValues>
            -9.1730141639709473e-01 8.2409179210662842e-01</leafValues></_>
        <_>
          <internalNodes>
            0 -1 8 1.5942486003041267e-02</internalNodes>
          <leafValues>
            -9.6244889497756958e-01 7.5437670946121216e-01</leafValues></_></weakClassifiers></_>
    <!-- stage 4 -->
    <_>
      <maxWeakCount>2</maxWeakCount>
      <stageThreshold>-1.7923815548419952e-01</stageThreshold>
      <weakClassifiers>
        <_>
          <internalNodes>
            0 -1 3 -2.1989557892084122e-02</internalNodes>
          <leafValues>
            7.5535714626312256e-01 -9.7869825363159180e-01</leafValues></_>
        <_>
          <internalNodes>
            0 -1 6 9.8478958010673523e-02</internalNodes>
          <leafValues>
            -8.4961861371994019e-01 7.9946005344390869e-01</leafValues></_></weakClassifiers></_>
    <!-- stage 5 -->
    <_>
      <maxWeakCount>2</maxWeakCount>
      <stageThreshold>-2.4701830744743347e-01</stageThreshold>
      <weakClassifiers>
        <_>
          <internalNodes>
            0 -1 5 -2.3082744330167770e-02</internalNodes>
          <leafValues>
            7.9853481054306030e-01 -9.7709047794342041e-01</leafValues></_>
        <_>
          <internalNodes>
            0 -1 10 -5.4897731170058250e-03</internalNodes>
          <leafValues>
            7.3007220029830933e-01 -9.7673845291137695e-01</leafValues></_></weakClassifiers></_></stages>
  <features>
    <_>
      <rects>
        <_>
          0 2 2 28 -1.</_>
        <_>
          0 9 2 14 2.</_></rects>
      <tilted>0</tilted></_>
    <_>
      <rects>
        <_>
          0 48 12 142 -1.</_>
        <_>
          3 48 6 142 2.</_></rects>
      <tilted>0</tilted></_>
    <_>
      <rects>
        <_>
          0 57 14 123 -1.</_>
        <_>
          0 98 14 41 3.</_></rects>
      <tilted>0</tilted></_>
    <_>
      <rects>
        <_>
          0 84 14 24 -1.</_>
        <_>
          0 90 14 12 2.</_></rects>
      <tilted>0</tilted></_>
    <_>
      <rects>
        <_>
          0 189 8 11 -1.</_>
        <_>
          2 189 4 11 2.</_></rects>
      <tilted>0</tilted></_>
    <_>
      <rects>
        <_>
          1 96 4 52 -1.</_>
        <_>
          1 109 4 26 2.</_></rects>
      <tilted>0</tilted></_>
    <_>
      <rects>
        <_>
          2 10 12 136 -1.</_>
        <_>
          6 10 4 136 3.</_></rects>
      <tilted>0</tilted></_>
    <_>
      <rects>
        <_>
          8 143 5 33 -1.</_>
        <_>
          8 154 5 11 3.</_></rects>
      <tilted>0</tilted></_>
    <_>
      <rects>
        <_>
          11 18 3 44 -1.</_>
        <_>
          11 29 3 22 2.</_></rects>
      <tilted>0</tilted></_>
    <_>
      <rects>
        <_>
          11 74 3 12 -1.</_>
        <_>
          11 78 3 4 3.</_></rects>
      <tilted>0</tilted></_>
    <_>
      <rects>
        <_>
          13 163 1 32 -1.</_>
        <_>
          13 179 1 16 2.</_></rects>
      <tilted>0</tilted></_></features></cascade>
</opencv_storage>
